Language model created by QuickLM on Wed Mar 14 06:34:44 EDT 2012
Copyright (c) 1996-2000
Carnegie Mellon University and Alexander I. Rudnicky

This model based on a corpus of 26 sentences and 28 words
The (fixed) discount mass is 0.5

\data\
ngram 1=6
ngram 2=8
ngram 3=4

\1-grams:
-0.7782 </s> -0.3010
-0.7782 <s> -0.2218
-2.1931 你好 -0.2218
-2.1931 打开 -0.2218
-2.1931 播放 -0.2218
-2.1931 浏览器 -0.2218

\2-grams:
-1.7160 <s> 你好 0.0000
-1.7160 <s> 打开 0.0000
-1.7160 <s> 播放 0.0000
-1.7160 <s> 浏览器 0.0000
-0.3010 你好 </s> -0.3010
-0.3010 打开 </s> -0.3010
-0.3010 播放 </s> -0.3010
-0.3010 浏览器 </s> -0.3010

\3-grams:
-0.3010 <s> 你好 </s>
-0.3010 <s> 打开 </s>
-0.3010 <s> 播放 </s>
-0.3010 <s> 浏览器 </s>

\end\
